encog,BasicNetwork,java,3.2.0,1,63575332717315
[BASIC]
[BASIC:PARAMS]
[BASIC:NETWORK]
beginTraining=0
connectionLimit=0
contextTargetOffset=0,0,0
contextTargetSize=0,0,0
endTraining=2
hasContext=f
inputCount=22
layerCounts=1,7,23
layerFeedCounts=1,6,22
layerContextCount=0,0,0
layerIndex=0,1,8
output=0,0,0,0,0,0,0,1,0,0,0,0,0,0,0,0,0,0,0,0,0,0,0,0,0,0,0,0,0,0,1
outputCount=1
weightIndex=0,7,145
weights=0.290560884364583,0.423276657363261,0.295096944188183,-0.634774728208992,0.2967057930984,0.207143799558553,-0.217887839393796,0.544057311649393,0.303228327100335,2.49833689133919,0.409141729121307,0.0212729376107202,-0.302633076375092,-1.44408189372363,-0.961311211452303,-1.08208919314253,0.970392204266601,-0.790812989270882,0.264021720005655,2.78510222326386,0.22707787319096,2.24819297841479,0.275301071787818,-0.392257920676787,0.0732193627692846,0.278510720067935,-0.103375310498074,0.529945998050608,-0.737235041701226,0.0671270821716018,0.173720573426343,0.80239891770982,0.197819966901949,0.111175383400339,0.109405119415787,-0.301095703321678,-0.566290928741637,0.706341618838542,-0.568196610175224,0.0153226748893827,-0.724946247359999,0.481306689382193,-0.215965331652687,0.335960025724306,0.981751407434878,-0.152901167959926,1.60298468714638,0.0114402209172906,1.56933179906987,0.859434318587121,0.145971069123238,0.920336057481175,-0.429596681309162,0.57441235699329,0.139490728473268,0.0440728363224702,1.18240142084379,0.0274734313437401,0.267741539491909,0.36997312079424,1.06074081199822,0.666022404616044,-0.826132118753829,1.12760211201268,-0.989263490971843,0.940243146185445,-0.928141354284264,-3.4254285566214,0.0563377173989687,0.815591064935422,0.490828260315688,0.260382912941598,-0.139304882102096,1.35187548919788,0.787796620358319,-0.576601240123894,0.137498079049912,0.121041674075658,0.00943726291621056,0.17288333745047,0.365398307433091,0.34027656688541,0.40020345498726,0.11010337079859,-0.172633656085805,-0.390237238407455,-0.0494402060750555,0.271377565851765,-0.217736283447849,-0.1303259549357,0.654037638438254,-0.104933134784537,0.258683603688539,-0.0326634104602075,0.637356363117086,0.188704351005575,0.27906244642984,0.298798333571485,0.537643934162821,0.319950557398755,-0.0952725277636035,-1.44636305603644,0.963639637644353,0.42848846223667,-0.608170784221252,-0.347146150764783,-0.388047503778926,0.11517937157521,-0.15433124415841,-0.295929804455556,0.548439771465044,-2.25476111767997,-0.0707903462468235,1.6031418673061,0.107085984739803,0.890888767725578,1.07441559490806,-0.29072711663198,1.31456670868848,-0.140509461037964,0.711633763515208,0.155126707670228,1.21276996318259,-0.637345604417347,0.650142840229108,-0.858706363923856,0.102908465060312,0.416441636015291,-0.96127188658174,-0.863977649315315,0.377876562821632,-2.88889140824838,0.236964882249225,3.43881695930134,-1.18877604819856,0.262260245562546,0.255476013162768,0.464643473351727,-1.76911788171501,2.44489059496498,7.48686436651735,1.90780432881272,-0.595215055632329,-1.47724499279285,0.306242249030093
biasActivation=0,1,1
[BASIC:ACTIVATION]
"ActivationTANH"
"ActivationTANH"
"ActivationLinear"
