encog,BasicNetwork,java,3.2.0,1,63575331231094
[BASIC]
[BASIC:PARAMS]
[BASIC:NETWORK]
beginTraining=0
connectionLimit=0
contextTargetOffset=0,0,0
contextTargetSize=0,0,0
endTraining=2
hasContext=f
inputCount=4
layerCounts=2,7,5
layerFeedCounts=2,6,4
layerContextCount=0,0,0
layerIndex=0,2,9
output=0,0,0,0,0,0,0,0,1,0,0,0,0,1
outputCount=2
weightIndex=0,14,44
weights=0.705834333902852,-0.553046944752393,0.132802385832185,-1.35506884481178,0.465892063318702,0.501110630922586,-0.689850877713546,0.035673519078628,2.20506459475826,1.40735144953574,3.69653023684017,-0.0150821914759446,0.0669100725766996,-0.326972756566771,2.04835655246404,-11.4217624738661,11.1883362807267,22.002642927534,12.688596530012,0.921600140172974,5.08029415791919,1.19286457529707,-19.9610987538498,5.28020501043285,-0.0835365379541366,-0.147354333849499,-1.45459118377924,0.730034104646573,1.29212518694762,-0.289098575907172,-2.29746569095203,2.80612281974935,6.74270232638431,-3.37404963787546,0.442784614256403,-4.98136523659442,6.82921416590858,10.5552486726375,9.71244942869771,0.417824250378544,-0.0983245828613503,0.0135092425774523,0.649623015669682,-0.258948102523625
biasActivation=0,1,1
[BASIC:ACTIVATION]
"ActivationTANH"
"ActivationTANH"
"ActivationLinear"
